<?xml version="1.0"?>
<opencv_storage>
<cascade>
  <stageType>BOOST</stageType>
  <featureType>HAAR</featureType>
  <height>32</height>
  <width>32</width>
  <stageParams>
    <boostType>GAB</boostType>
    <minHitRate>9.9500000476837158e-01</minHitRate>
    <maxFalseAlarm>5.0000000000000000e-01</maxFalseAlarm>
    <weightTrimRate>9.4999998807907104e-01</weightTrimRate>
    <maxDepth>1</maxDepth>
    <maxWeakCount>100</maxWeakCount></stageParams>
  <featureParams>
    <maxCatCount>0</maxCatCount>
    <featSize>1</featSize>
    <mode>BASIC</mode></featureParams>
  <stageNum>20</stageNum>
  <stages>
    <!-- stage 0 -->
    <_>
      <maxWeakCount>9</maxWeakCount>
      <stageThreshold>-1.5981245040893555e+00</stageThreshold>
      <weakClassifiers>
        <_>
          <internalNodes>
            0 -1 188 -3.7931647151708603e-02</internalNodes>
          <leafValues>
            4.8571428656578064e-01 -8.2169115543365479e-01</leafValues></_>
        <_>
          <internalNodes>
            0 -1 127 -1.5942105092108250e-03</internalNodes>
          <leafValues>
            2.3684312403202057e-01 -5.8861142396926880e-01</leafValues></_>
        <_>
          <internalNodes>
            0 -1 75 1.0626473464071751e-02</internalNodes>
          <leafValues>
            -2.4523621797561646e-01 6.8048113584518433e-01</leafValues></_>
        <_>
          <internalNodes>
            0 -1 49 2.7153797447681427e-02</internalNodes>
          <leafValues>
            1.4116221666336060e-01 -9.5083975791931152e-01</leafValues></_>
        <_>
          <internalNodes>
            0 -1 58 -5.2009917795658112e-02</internalNodes>
          <leafValues>
            -4.9780192971229553e-01 2.6363646984100342e-01</leafValues></_>
        <_>
          <internalNodes>
            0 -1 19 3.4011532552540302e-03</internalNodes>
          <leafValues>
            -2.6535668969154358e-01 4.6876323223114014e-01</leafValues></_>
        <_>
          <internalNodes>
            0 -1 170 -3.1847623176872730e-03</internalNodes>
          <leafValues>
            4.9241828918457031e-01 -2.2829012572765350e-01</leafValues></_>
        <_>
          <internalNodes>
            0 -1 163 -2.0143617875874043e-03</internalNodes>
          <leafValues>
            6.8776434659957886e-01 -1.6516952216625214e-01</leafValues></_>
        <_>
          <internalNodes>
            0 -1 122 -3.7686499126721174e-05</internalNodes>
          <leafValues>
            3.3875039219856262e-01 -3.5436502099037170e-01</leafValues></_></weakClassifiers></_>
    <!-- stage 1 -->
    <_>
      <maxWeakCount>9</maxWeakCount>
      <stageThreshold>-1.4189896583557129e+00</stageThreshold>
      <weakClassifiers>
        <_>
          <internalNodes>
            0 -1 59 1.5006238222122192e-01</internalNodes>
          <leafValues>
            -8.0289328098297119e-01 6.4705884456634521e-01</leafValues></_>
        <_>
          <internalNodes>
            0 -1 33 6.3851056620478630e-03</internalNodes>
          <leafValues>
            -3.8387227058410645e-01 5.1493734121322632e-01</leafValues></_>
        <_>
          <internalNodes>
            0 -1 227 -1.7985375598073006e-03</internalNodes>
          <leafValues>
            -7.6595753431320190e-01 1.1422234773635864e-01</leafValues></_>
        <_>
          <internalNodes>
            0 -1 191 4.5590186491608620e-03</internalNodes>
          <leafValues>
            6.9157846271991730e-02 -9.5691359043121338e-01</leafValues></_>
        <_>
          <internalNodes>
            0 -1 179 -1.5077525749802589e-03</internalNodes>
          <leafValues>
            2.9187399148941040e-01 -3.0579560995101929e-01</leafValues></_>
        <_>
          <internalNodes>
            0 -1 22 -9.6448427066206932e-03</internalNodes>
          <leafValues>
            4.5739597082138062e-01 -1.8396808207035065e-01</leafValues></_>
        <_>
          <internalNodes>
            0 -1 204 -2.2936393506824970e-03</internalNodes>
          <leafValues>
            -6.6945296525955200e-01 1.3496139645576477e-01</leafValues></_>
        <_>
          <internalNodes>
            0 -1 103 -6.4506419003009796e-02</internalNodes>
          <leafValues>
            -9.5129328966140747e-01 6.5532192587852478e-02</leafValues></_>
        <_>
          <internalNodes>
            0 -1 228 -5.6994101032614708e-04</internalNodes>
          <leafValues>
            -5.5779933929443359e-01 1.5617613494396210e-01</leafValues></_></weakClassifiers></_>
    <!-- stage 2 -->
    <_>
      <maxWeakCount>9</maxWeakCount>
      <stageThreshold>-1.5949125289916992e+00</stageThreshold>
      <weakClassifiers>
        <_>
          <internalNodes>
            0 -1 2 7.5462475419044495e-02</internalNodes>
          <leafValues>
            -8.0253624916076660e-01 4.7368422150611877e-01</leafValues></_>
        <_>
          <internalNodes>
            0 -1 177 -1.0231649503111839e-03</internalNodes>
          <leafValues>
            -7.1253770589828491e-01 -1.2855546176433563e-01</leafValues></_>
        <_>
          <internalNodes>
            0 -1 92 -2.7687253896147013e-03</internalNodes>
          <leafValues>
            -8.0219346284866333e-01 7.6302953064441681e-02</leafValues></_>
        <_>
          <internalNodes>
            0 -1 146 -2.5072621647268534e-03</internalNodes>
          <leafValues>
            4.4051176309585571e-01 -1.9352641701698303e-01</leafValues></_>
        <_>
          <internalNodes>
            0 -1 140 -2.7450496418168768e-05</internalNodes>
          <leafValues>
            3.0922198295593262e-01 -3.0224829912185669e-01</leafValues></_>
        <_>
          <internalNodes>
            0 -1 119 -1.3667798157257494e-05</internalNodes>
          <leafValues>
            2.4269916117191315e-01 -3.5860648751258850e-01</leafValues></_>
        <_>
          <internalNodes>
            0 -1 38 -2.7113121468573809e-03</internalNodes>
          <leafValues>
            -6.8954640626907349e-01 1.5684960782527924e-01</leafValues></_>
        <_>
          <internalNodes>
            0 -1 121 2.1373503841459751e-03</internalNodes>
          <leafValues>
            1.1914059519767761e-01 -6.7863529920578003e-01</leafValues></_>
        <_>
          <internalNodes>
            0 -1 21 4.2887078598141670e-03</internalNodes>
          <leafValues>
            1.6147826611995697e-01 -5.2811270952224731e-01</leafValues></_></weakClassifiers></_>
    <!-- stage 3 -->
    <_>
      <maxWeakCount>10</maxWeakCount>
      <stageThreshold>-1.6360002756118774e+00</stageThreshold>
      <weakClassifiers>
        <_>
          <internalNodes>
            0 -1 173 -1.0039434768259525e-02</internalNodes>
          <leafValues>
            5.0000000000000000e-01 -7.9945796728134155e-01</leafValues></_>
        <_>
          <internalNodes>
            0 -1 137 -1.3735231943428516e-02</internalNodes>
          <leafValues>
            5.2363765239715576e-01 -3.6804872751235962e-01</leafValues></_>
        <_>
          <internalNodes>
            0 -1 202 1.2431966606527567e-03</internalNodes>
          <leafValues>
            1.0797657817602158e-01 -6.7372393608093262e-01</leafValues></_>
        <_>
          <internalNodes>
            0 -1 48 3.2741278409957886e-03</internalNodes>
          <leafValues>
            7.7518954873085022e-02 -8.0372256040573120e-01</leafValues></_>
        <_>
          <internalNodes>
            0 -1 57 -3.1724110245704651e-02</internalNodes>
          <leafValues>
            -7.2802215814590454e-01 1.3550132513046265e-01</leafValues></_>
        <_>
          <internalNodes>
            0 -1 63 -2.3084877058863640e-02</internalNodes>
          <leafValues>
            -5.6715333461761475e-01 1.2594054639339447e-01</leafValues></_>
        <_>
          <internalNodes>
            0 -1 135 2.9803055804222822e-03</internalNodes>
          <leafValues>
            -1.3034750521183014e-01 7.1753144264221191e-01</leafValues></_>
        <_>
          <internalNodes>
            0 -1 118 -5.0149363232776523e-04</internalNodes>
          <leafValues>
            3.0123993754386902e-01 -2.5350534915924072e-01</leafValues></_>
        <_>
          <internalNodes>
            0 -1 209 2.2147749550640583e-03</internalNodes>
          <leafValues>
            1.2852968275547028e-01 -7.3431122303009033e-01</leafValues></_>
        <_>
          <internalNodes>
            0 -1 27 1.2286878190934658e-03</internalNodes>
          <leafValues>
            1.2159275263547897e-01 -5.8883959054946899e-01</leafValues></_></weakClassifiers></_>
    <!-- stage 4 -->
    <_>
      <maxWeakCount>10</maxWeakCount>
      <stageThreshold>-1.7434644699096680e+00</stageThreshold>
      <weakClassifiers>
        <_>
          <internalNodes>
            0 -1 88 5.6053441949188709e-03</internalNodes>
          <leafValues>
            -8.0733942985534668e-01 9.0909093618392944e-02</leafValues></_>
        <_>
          <internalNodes>
            0 -1 198 -7.3453933000564575e-03</internalNodes>
          <leafValues>
            4.7917026281356812e-01 -3.6819994449615479e-01</leafValues></_>
        <_>
          <internalNodes>
            0 -1 83 1.3366120401769876e-03</internalNodes>
          <leafValues>
            1.4155387878417969e-01 -5.4118794202804565e-01</leafValues></_>
        <_>
          <internalNodes>
            0 -1 196 1.2152701616287231e-02</internalNodes>
          <leafValues>
            8.7861709296703339e-02 -8.0510580539703369e-01</leafValues></_>
        <_>
          <internalNodes>
            0 -1 17 -1.8219463527202606e-03</internalNodes>
          <leafValues>
            -5.1963639259338379e-01 1.6881293058395386e-01</leafValues></_>
        <_>
          <internalNodes>
            0 -1 43 -6.5721658756956458e-04</internalNodes>
          <leafValues>
            -4.3721154332160950e-01 1.7140938341617584e-01</leafValues></_>
        <_>
          <internalNodes>
            0 -1 66 -3.8756667636334896e-03</internalNodes>
          <leafValues>
            -8.4291023015975952e-01 9.2140622437000275e-02</leafValues></_>
        <_>
          <internalNodes>
            0 -1 32 1.3115483522415161e-01</internalNodes>
          <leafValues>
            9.3802846968173981e-02 -7.2405624389648438e-01</leafValues></_>
        <_>
          <internalNodes>
            0 -1 70 -5.8979662135243416e-03</internalNodes>
          <leafValues>
            -8.1243765354156494e-01 7.9977013170719147e-02</leafValues></_>
        <_>
          <internalNodes>
            0 -1 162 -2.3859855718910694e-03</internalNodes>
          <leafValues>
            8.0073422193527222e-01 -1.1212072521448135e-01</leafValues></_></weakClassifiers></_>
    <!-- stage 5 -->
    <_>
      <maxWeakCount>12</maxWeakCount>
      <stageThreshold>-1.7659450769424438e+00</stageThreshold>
      <weakClassifiers>
        <_>
          <internalNodes>
            0 -1 104 2.3098862729966640e-03</internalNodes>
          <leafValues>
            -7.9981964826583862e-01 7.1428573131561279e-01</leafValues></_>
        <_>
          <internalNodes>
            0 -1 152 2.7406546287238598e-03</internalNodes>
          <leafValues>
            -3.7631505727767944e-01 5.0563830137252808e-01</leafValues></_>
        <_>
          <internalNodes>
            0 -1 47 2.0990967750549316e-02</internalNodes>
          <leafValues>
            7.9036213457584381e-02 -8.9420014619827271e-01</leafValues></_>
        <_>
          <internalNodes>
            0 -1 0 -2.9149390757083893e-03</internalNodes>
          <leafValues>
            -5.6123876571655273e-01 1.5342068672180176e-01</leafValues></_>
        <_>
          <internalNodes>
            0 -1 136 -9.4430986791849136e-04</internalNodes>
          <leafValues>
            6.3722831010818481e-01 -1.3764581084251404e-01</leafValues></_>
        <_>
          <internalNodes>
            0 -1 212 -1.4771976566407830e-04</internalNodes>
          <leafValues>
            -3.6768713593482971e-01 2.1650466322898865e-01</leafValues></_>
        <_>
          <internalNodes>
            0 -1 28 -2.6819405611604452e-03</internalNodes>
          <leafValues>
            -4.3230766057968140e-01 1.9648464024066925e-01</leafValues></_>
        <_>
          <internalNodes>
            0 -1 30 3.9904993027448654e-03</internalNodes>
          <leafValues>
            1.9087070226669312e-01 -4.8299062252044678e-01</leafValues></_>
        <_>
          <internalNodes>
            0 -1 3 2.4553198367357254e-02</internalNodes>
          <leafValues>
            1.4432707428932190e-01 -5.2600991725921631e-01</leafValues></_>
        <_>
          <internalNodes>
            0 -1 231 -6.1036174884065986e-05</internalNodes>
          <leafValues>
            -3.4432968497276306e-01 2.3463283479213715e-01</leafValues></_>
        <_>
          <internalNodes>
            0 -1 67 7.2758972644805908e-02</internalNodes>
          <leafValues>
            1.0095838457345963e-01 -8.0985707044601440e-01</leafValues></_>
        <_>
          <internalNodes>
            0 -1 76 -3.9321342483162880e-03</internalNodes>
          <leafValues>
            -6.0524541139602661e-01 1.1124106496572495e-01</leafValues></_></weakClassifiers></_>
    <!-- stage 6 -->
    <_>
      <maxWeakCount>13</maxWeakCount>
      <stageThreshold>-1.7380170822143555e+00</stageThreshold>
      <weakClassifiers>
        <_>
          <internalNodes>
            0 -1 98 1.7522657290101051e-03</internalNodes>
          <leafValues>
            -8.0978262424468994e-01 8.9473682641983032e-01</leafValues></_>
        <_>
          <internalNodes>
            0 -1 68 -9.2423160094767809e-04</internalNodes>
          <leafValues>
            7.2900009155273438e-01 -4.1328525543212891e-01</leafValues></_>
        <_>
          <internalNodes>
            0 -1 211 -4.2687286622822285e-04</internalNodes>
          <leafValues>
            -5.3883516788482666e-01 1.8326167762279510e-01</leafValues></_>
        <_>
          <internalNodes>
            0 -1 112 -5.9602066176012158e-04</internalNodes>
          <leafValues>
            5.7528048753738403e-01 -1.6651628911495209e-01</leafValues></_>
        <_>
          <internalNodes>
            0 -1 224 -5.3698990086559206e-05</internalNodes>
          <leafValues>
            -4.1600131988525391e-01 2.3038388788700104e-01</leafValues></_>
        <_>
          <internalNodes>
            0 -1 89 9.4730022829025984e-04</internalNodes>
          <leafValues>
            -1.3754126429557800e-01 5.7502007484436035e-01</leafValues></_>
        <_>
          <internalNodes>
            0 -1 133 5.0470745190978050e-04</internalNodes>
          <leafValues>
            2.0753498375415802e-01 -4.4671961665153503e-01</leafValues></_>
        <_>
          <internalNodes>
            0 -1 165 5.6805612985044718e-04</internalNodes>
          <leafValues>
            -1.4379614591598511e-01 5.8771777153015137e-01</leafValues></_>
        <_>
          <internalNodes>
            0 -1 172 -1.0319286957383156e-02</internalNodes>
          <leafValues>
            -7.7499949932098389e-01 1.4171947538852692e-01</leafValues></_>
        <_>
          <internalNodes>
            0 -1 194 -1.0066714603453875e-03</internalNodes>
          <leafValues>
            2.8897511959075928e-01 -3.3204662799835205e-01</leafValues></_>
        <_>
          <internalNodes>
            0 -1 167 1.9937108736485243e-03</internalNodes>
          <leafValues>
            2.2246430814266205e-01 -4.2760559916496277e-01</leafValues></_>
        <_>
          <internalNodes>
            0 -1 97 -3.5813247086480260e-04</internalNodes>
          <leafValues>
            4.2755585908889771e-01 -2.0996376872062683e-01</leafValues></_>
        <_>
          <internalNodes>
            0 -1 206 2.2301581338979304e-04</internalNodes>
          <leafValues>
            2.1164734661579132e-01 -4.1410857439041138e-01</leafValues></_></weakClassifiers></_>
    <!-- stage 7 -->
    <_>
      <maxWeakCount>8</maxWeakCount>
      <stageThreshold>-1.6466906070709229e+00</stageThreshold>
      <weakClassifiers>
        <_>
          <internalNodes>
            0 -1 86 9.6787250367924571e-04</internalNodes>
          <leafValues>
            -8.2768100500106812e-01 8.1250000000000000e-01</leafValues></_>
        <_>
          <internalNodes>
            0 -1 128 -7.9984695184975863e-04</internalNodes>
          <leafValues>
            6.8180102109909058e-01 -4.8219448328018188e-01</leafValues></_>
        <_>
          <internalNodes>
            0 -1 113 -4.8232992412522435e-04</internalNodes>
          <leafValues>
            7.3701900243759155e-01 -2.4489983916282654e-01</leafValues></_>
        <_>
          <internalNodes>
            0 -1 115 6.2967091798782349e-04</internalNodes>
          <leafValues>
            -1.8248359858989716e-01 6.9830477237701416e-01</leafValues></_>
        <_>
          <internalNodes>
            0 -1 186 -3.7031044485047460e-04</internalNodes>
          <leafValues>
            6.6214913129806519e-01 -1.9792579114437103e-01</leafValues></_>
        <_>
          <internalNodes>
            0 -1 64 4.8876344226300716e-04</internalNodes>
          <leafValues>
            -1.9859297573566437e-01 6.8790465593338013e-01</leafValues></_>
        <_>
          <internalNodes>
            0 -1 101 -4.6095461584627628e-04</internalNodes>
          <leafValues>
            7.2367668151855469e-01 -1.6449724137783051e-01</leafValues></_>
        <_>
          <internalNodes>
            0 -1 39 -3.7063751369714737e-04</internalNodes>
          <leafValues>
            7.0063650608062744e-01 -2.0849061012268066e-01</leafValues></_></weakClassifiers></_>
    <!-- stage 8 -->
    <_>
      <maxWeakCount>13</maxWeakCount>
      <stageThreshold>-1.6088910102844238e+00</stageThreshold>
      <weakClassifiers>
        <_>
          <internalNodes>
            0 -1 94 1.9918745383620262e-03</internalNodes>
          <leafValues>
            -8.0399274826049805e-01 4.2857143282890320e-01</leafValues></_>
        <_>
          <internalNodes>
            0 -1 37 1.3951526489108801e-03</internalNodes>
          <leafValues>
            -3.7907367944717407e-01 5.9389299154281616e-01</leafValues></_>
        <_>
          <internalNodes>
            0 -1 149 9.1752386651933193e-04</internalNodes>
          <leafValues>
            -2.2838592529296875e-01 3.5104230046272278e-01</leafValues></_>
        <_>
          <internalNodes>
            0 -1 213 7.6107925269752741e-04</internalNodes>
          <leafValues>
            -1.9807749986648560e-01 4.2663744091987610e-01</leafValues></_>
        <_>
          <internalNodes>
            0 -1 193 4.5141309965401888e-04</internalNodes>
          <leafValues>
            -1.4936749637126923e-01 4.9280682206153870e-01</leafValues></_>
        <_>
          <internalNodes>
            0 -1 197 -3.4147426486015320e-02</internalNodes>
          <leafValues>
            6.1066532135009766e-01 -1.2786649167537689e-01</leafValues></_>
        <_>
          <internalNodes>
            0 -1 106 -5.1732887513935566e-03</internalNodes>
          <leafValues>
            -5.4971134662628174e-01 1.5493880212306976e-01</leafValues></_>
        <_>
          <internalNodes>
            0 -1 190 3.9664236828684807e-04</internalNodes>
          <leafValues>
            -2.1143476665019989e-01 3.6977896094322205e-01</leafValues></_>
        <_>
          <internalNodes>
            0 -1 42 5.7231669779866934e-04</internalNodes>
          <leafValues>
            -2.9288166761398315e-01 2.6250788569450378e-01</leafValues></_>
        <_>
          <internalNodes>
            0 -1 16 -2.0118855172768235e-04</internalNodes>
          <leafValues>
            -3.6546465754508972e-01 1.9979242980480194e-01</leafValues></_>
        <_>
          <internalNodes>
            0 -1 203 -2.4358469090657309e-05</internalNodes>
          <leafValues>
            2.6464563608169556e-01 -2.8334096074104309e-01</leafValues></_>
        <_>
          <internalNodes>
            0 -1 51 -1.4116622041910887e-03</internalNodes>
          <leafValues>
            -6.7778646945953369e-01 1.1282233148813248e-01</leafValues></_>
        <_>
          <internalNodes>
            0 -1 130 2.0636079716496170e-04</internalNodes>
          <leafValues>
            -2.8669637441635132e-01 2.8520926833152771e-01</leafValues></_></weakClassifiers></_>
    <!-- stage 9 -->
    <_>
      <maxWeakCount>10</maxWeakCount>
      <stageThreshold>-1.5070041418075562e+00</stageThreshold>
      <weakClassifiers>
        <_>
          <internalNodes>
            0 -1 116 6.8434593267738819e-03</internalNodes>
          <leafValues>
            -8.2063645124435425e-01 -3.0232557654380798e-01</leafValues></_>
        <_>
          <internalNodes>
            0 -1 34 -2.7595269493758678e-03</internalNodes>
          <leafValues>
            -9.3167257308959961e-01 -1.7614363133907318e-01</leafValues></_>
        <_>
          <internalNodes>
            0 -1 99 4.1753221303224564e-03</internalNodes>
          <leafValues>
            5.5982369929552078e-02 -8.8126617670059204e-01</leafValues></_>
        <_>
          <internalNodes>
            0 -1 35 -1.5484299510717392e-02</internalNodes>
          <leafValues>
            -8.2592868804931641e-01 1.0749077051877975e-01</leafValues></_>
        <_>
          <internalNodes>
            0 -1 111 -2.4637584574520588e-03</internalNodes>
          <leafValues>
            -7.4462831020355225e-01 9.4940163195133209e-02</leafValues></_>
        <_>
          <internalNodes>
            0 -1 153 2.5478783994913101e-02</internalNodes>
          <leafValues>
            3.4047521650791168e-02 -1.</leafValues></_>
        <_>
          <internalNodes>
            0 -1 8 -3.0282251536846161e-03</internalNodes>
          <leafValues>
            -5.7910448312759399e-01 1.1249939352273941e-01</leafValues></_>
        <_>
          <internalNodes>
            0 -1 61 6.2081916257739067e-03</internalNodes>
          <leafValues>
            8.6539342999458313e-02 -8.3260065317153931e-01</leafValues></_>
        <_>
          <internalNodes>
            0 -1 11 -3.7805261090397835e-03</internalNodes>
          <leafValues>
            -6.0867029428482056e-01 1.1127509921789169e-01</leafValues></_>
        <_>
          <internalNodes>
            0 -1 201 -6.9132208591327071e-04</internalNodes>
          <leafValues>
            4.6055570244789124e-01 -1.7957927286624908e-01</leafValues></_></weakClassifiers></_>
    <!-- stage 10 -->
    <_>
      <maxWeakCount>11</maxWeakCount>
      <stageThreshold>-1.6126850843429565e+00</stageThreshold>
      <weakClassifiers>
        <_>
          <internalNodes>
            0 -1 221 5.5990885011851788e-03</internalNodes>
          <leafValues>
            -7.9657965898513794e-01 6.6666668653488159e-01</leafValues></_>
        <_>
          <internalNodes>
            0 -1 14 -5.1098316907882690e-04</internalNodes>
          <leafValues>
            -6.1334550380706787e-01 -1.2034732103347778e-01</leafValues></_>
        <_>
          <internalNodes>
            0 -1 100 -3.3385634887963533e-03</internalNodes>
          <leafValues>
            -8.2727921009063721e-01 4.8904895782470703e-02</leafValues></_>
        <_>
          <internalNodes>
            0 -1 215 -3.9075204404070973e-04</internalNodes>
          <leafValues>
            3.8572055101394653e-01 -1.5411344170570374e-01</leafValues></_>
        <_>
          <internalNodes>
            0 -1 207 9.7201135940849781e-04</internalNodes>
          <leafValues>
            1.1893128603696823e-01 -5.7497555017471313e-01</leafValues></_>
        <_>
          <internalNodes>
            0 -1 132 -7.4248301098123193e-04</internalNodes>
          <leafValues>
            3.0577611923217773e-01 -2.5064554810523987e-01</leafValues></_>
        <_>
          <internalNodes>
            0 -1 176 1.6574410255998373e-03</internalNodes>
          <leafValues>
            -1.9110779464244843e-01 3.3714452385902405e-01</leafValues></_>
        <_>
          <internalNodes>
            0 -1 82 -7.5867767445743084e-03</internalNodes>
          <leafValues>
            -6.4031600952148438e-01 9.4794623553752899e-02</leafValues></_>
        <_>
          <internalNodes>
            0 -1 4 -2.0572873763740063e-03</internalNodes>
          <leafValues>
            -4.5325022935867310e-01 1.4647859334945679e-01</leafValues></_>
        <_>
          <internalNodes>
            0 -1 222 -9.5455034170299768e-04</internalNodes>
          <leafValues>
            -3.5019448399543762e-01 1.9135841727256775e-01</leafValues></_>
        <_>
          <internalNodes>
            0 -1 195 -4.7408752143383026e-03</internalNodes>
          <leafValues>
            3.3613908290863037e-01 -1.9406041502952576e-01</leafValues></_></weakClassifiers></_>
    <!-- stage 11 -->
    <_>
      <maxWeakCount>14</maxWeakCount>
      <stageThreshold>-1.7286725044250488e+00</stageThreshold>
      <weakClassifiers>
        <_>
          <internalNodes>
            0 -1 36 3.0575969722121954e-03</internalNodes>
          <leafValues>
            -8.0527752637863159e-01 3.3333334326744080e-01</leafValues></_>
        <_>
          <internalNodes>
            0 -1 226 -1.4254333218559623e-03</internalNodes>
          <leafValues>
            3.8322597742080688e-01 -3.8890171051025391e-01</leafValues></_>
        <_>
          <internalNodes>
            0 -1 13 -1.2449529021978378e-03</internalNodes>
          <leafValues>
            -4.0303206443786621e-01 1.8308088183403015e-01</leafValues></_>
        <_>
          <internalNodes>
            0 -1 145 6.8521173670887947e-04</internalNodes>
          <leafValues>
            -1.3710942864418030e-01 5.2415233850479126e-01</leafValues></_>
        <_>
          <internalNodes>
            0 -1 189 -6.1753853515256196e-05</internalNodes>
          <leafValues>
            2.3710088431835175e-01 -2.9010999202728271e-01</leafValues></_>
        <_>
          <internalNodes>
            0 -1 56 -4.2905345559120178e-02</internalNodes>
          <leafValues>
            -9.3606305122375488e-01 1.1930052191019058e-01</leafValues></_>
        <_>
          <internalNodes>
            0 -1 187 -8.8117197155952454e-03</internalNodes>
          <leafValues>
            3.1277465820312500e-01 -2.3882430791854858e-01</leafValues></_>
        <_>
          <internalNodes>
            0 -1 160 7.1670683100819588e-03</internalNodes>
          <leafValues>
            1.6480906307697296e-01 -5.3165507316589355e-01</leafValues></_>
        <_>
          <internalNodes>
            0 -1 208 -3.5674829268828034e-04</internalNodes>
          <leafValues>
            3.4925165772438049e-01 -2.1442642807960510e-01</leafValues></_>
        <_>
          <internalNodes>
            0 -1 107 -8.2271043211221695e-03</internalNodes>
          <leafValues>
            4.0192952752113342e-01 -1.6469404101371765e-01</leafValues></_>
        <_>
          <internalNodes>
            0 -1 178 8.3912499248981476e-03</internalNodes>
          <leafValues>
            9.4760283827781677e-02 -8.0874693393707275e-01</leafValues></_>
        <_>
          <internalNodes>
            0 -1 109 -1.7269480973482132e-02</internalNodes>
          <leafValues>
            -6.2767755985260010e-01 9.3585699796676636e-02</leafValues></_>
        <_>
          <internalNodes>
            0 -1 117 -1.9362114835530519e-03</internalNodes>
          <leafValues>
            4.2858713865280151e-01 -1.7804734408855438e-01</leafValues></_>
        <_>
          <internalNodes>
            0 -1 50 -3.1199629302136600e-04</internalNodes>
          <leafValues>
            -4.0206214785575867e-01 1.9311417639255524e-01</leafValues></_></weakClassifiers></_>
    <!-- stage 12 -->
    <_>
      <maxWeakCount>12</maxWeakCount>
      <stageThreshold>-1.5411063432693481e+00</stageThreshold>
      <weakClassifiers>
        <_>
          <internalNodes>
            0 -1 54 -1.5082168392837048e-03</internalNodes>
          <leafValues>
            2.5641025975346565e-02 -8.0996310710906982e-01</leafValues></_>
        <_>
          <internalNodes>
            0 -1 105 -8.0977697507478297e-06</internalNodes>
          <leafValues>
            -1.5898818150162697e-02 -5.1396811008453369e-01</leafValues></_>
        <_>
          <internalNodes>
            0 -1 90 -1.9196142602595501e-05</internalNodes>
          <leafValues>
            2.2144933044910431e-01 -3.2913792133331299e-01</leafValues></_>
        <_>
          <internalNodes>
            0 -1 81 -7.4243929702788591e-04</internalNodes>
          <leafValues>
            3.1834688782691956e-01 -2.2886872291564941e-01</leafValues></_>
        <_>
          <internalNodes>
            0 -1 73 -4.9769843462854624e-04</internalNodes>
          <leafValues>
            3.7851774692535400e-01 -1.7505384981632233e-01</leafValues></_>
        <_>
          <internalNodes>
            0 -1 80 2.1681691578123719e-05</internalNodes>
          <leafValues>
            -2.0156459510326385e-01 2.9854544997215271e-01</leafValues></_>
        <_>
          <internalNodes>
            0 -1 205 -4.6807274338789284e-04</internalNodes>
          <leafValues>
            3.3464992046356201e-01 -2.0948055386543274e-01</leafValues></_>
        <_>
          <internalNodes>
            0 -1 123 1.1991027276962996e-03</internalNodes>
          <leafValues>
            -3.0934798717498779e-01 2.1946561336517334e-01</leafValues></_>
        <_>
          <internalNodes>
            0 -1 77 1.9684941507875919e-03</internalNodes>
          <leafValues>
            -2.4850355088710785e-01 2.6867926120758057e-01</leafValues></_>
        <_>
          <internalNodes>
            0 -1 182 5.8251678943634033e-02</internalNodes>
          <leafValues>
            -8.6232148110866547e-02 6.6816866397857666e-01</leafValues></_>
        <_>
          <internalNodes>
            0 -1 180 -1.2992480769753456e-03</internalNodes>
          <leafValues>
            3.5509037971496582e-01 -1.7625461518764496e-01</leafValues></_>
        <_>
          <internalNodes>
            0 -1 151 -2.0415650214999914e-04</internalNodes>
          <leafValues>
            -2.9708811640739441e-01 2.2027583420276642e-01</leafValues></_></weakClassifiers></_>
    <!-- stage 13 -->
    <_>
      <maxWeakCount>11</maxWeakCount>
      <stageThreshold>-1.4310578107833862e+00</stageThreshold>
      <weakClassifiers>
        <_>
          <internalNodes>
            0 -1 65 -1.6774792224168777e-02</internalNodes>
          <leafValues>
            -1.9480518996715546e-01 -8.2409179210662842e-01</leafValues></_>
        <_>
          <internalNodes>
            0 -1 20 -4.3130139820277691e-03</internalNodes>
          <leafValues>
            2.3185087740421295e-01 -4.4100481271743774e-01</leafValues></_>
        <_>
          <internalNodes>
            0 -1 5 4.6933159232139587e-02</internalNodes>
          <leafValues>
            -2.9097941517829895e-01 3.4759044647216797e-01</leafValues></_>
        <_>
          <internalNodes>
            0 -1 185 2.5568834971636534e-03</internalNodes>
          <leafValues>
            1.6510818898677826e-01 -5.3948634862899780e-01</leafValues></_>
        <_>
          <internalNodes>
            0 -1 72 1.7534075304865837e-02</internalNodes>
          <leafValues>
            -1.0552387684583664e-01 6.6453856229782104e-01</leafValues></_>
        <_>
          <internalNodes>
            0 -1 46 4.8475586809217930e-03</internalNodes>
          <leafValues>
            -1.3500997424125671e-01 5.8584541082382202e-01</leafValues></_>
        <_>
          <internalNodes>
            0 -1 69 -7.9591143876314163e-03</internalNodes>
          <leafValues>
            -8.3822846412658691e-01 1.0907568037509918e-01</leafValues></_>
        <_>
          <internalNodes>
            0 -1 10 8.8164061307907104e-03</internalNodes>
          <leafValues>
            -1.4268341660499573e-01 7.1856063604354858e-01</leafValues></_>
        <_>
          <internalNodes>
            0 -1 150 -4.8360992223024368e-03</internalNodes>
          <leafValues>
            -8.3185678720474243e-01 1.3606944680213928e-01</leafValues></_>
        <_>
          <internalNodes>
            0 -1 147 1.8596963491290808e-03</internalNodes>
          <leafValues>
            -2.4472261965274811e-01 3.4167048335075378e-01</leafValues></_>
        <_>
          <internalNodes>
            0 -1 93 -9.5373857766389847e-04</internalNodes>
          <leafValues>
            3.4270468354225159e-01 -2.1063831448554993e-01</leafValues></_></weakClassifiers></_>
    <!-- stage 14 -->
    <_>
      <maxWeakCount>10</maxWeakCount>
      <stageThreshold>-1.5686556100845337e+00</stageThreshold>
      <weakClassifiers>
        <_>
          <internalNodes>
            0 -1 199 7.7442843466997147e-03</internalNodes>
          <leafValues>
            -7.9783391952514648e-01 4.6666666865348816e-01</leafValues></_>
        <_>
          <internalNodes>
            0 -1 131 -2.4016837123781443e-03</internalNodes>
          <leafValues>
            1.2788620591163635e-01 -4.0982952713966370e-01</leafValues></_>
        <_>
          <internalNodes>
            0 -1 220 1.1711929691955447e-03</internalNodes>
          <leafValues>
            -1.9749128818511963e-01 3.3587267994880676e-01</leafValues></_>
        <_>
          <internalNodes>
            0 -1 148 -3.8899490609765053e-03</internalNodes>
          <leafValues>
            -8.2895046472549438e-01 8.3677224814891815e-02</leafValues></_>
        <_>
          <internalNodes>
            0 -1 31 2.8262096457183361e-03</internalNodes>
          <leafValues>
            -1.9057501852512360e-01 3.4477370977401733e-01</leafValues></_>
        <_>
          <internalNodes>
            0 -1 156 -4.9551727715879679e-04</internalNodes>
          <leafValues>
            -3.5680857300758362e-01 1.8914721906185150e-01</leafValues></_>
        <_>
          <internalNodes>
            0 -1 181 -1.8175156583311036e-05</internalNodes>
          <leafValues>
            2.2961674630641937e-01 -3.0639940500259399e-01</leafValues></_>
        <_>
          <internalNodes>
            0 -1 41 -5.3362444043159485e-02</internalNodes>
          <leafValues>
            -8.3111327886581421e-01 1.0639713704586029e-01</leafValues></_>
        <_>
          <internalNodes>
            0 -1 158 -8.7548810988664627e-03</internalNodes>
          <leafValues>
            -7.6860582828521729e-01 7.9415485262870789e-02</leafValues></_>
        <_>
          <internalNodes>
            0 -1 230 3.9770612493157387e-03</internalNodes>
          <leafValues>
            -1.2516357004642487e-01 7.2888284921646118e-01</leafValues></_></weakClassifiers></_>
    <!-- stage 15 -->
    <_>
      <maxWeakCount>14</maxWeakCount>
      <stageThreshold>-1.4193309545516968e+00</stageThreshold>
      <weakClassifiers>
        <_>
          <internalNodes>
            0 -1 108 1.6649770736694336e-01</internalNodes>
          <leafValues>
            -7.9051029682159424e-01 1.</leafValues></_>
        <_>
          <internalNodes>
            0 -1 125 -3.0154131818562746e-03</internalNodes>
          <leafValues>
            4.5736834406852722e-01 -3.4681862592697144e-01</leafValues></_>
        <_>
          <internalNodes>
            0 -1 134 -1.4224341139197350e-02</internalNodes>
          <leafValues>
            -7.6340293884277344e-01 6.5002448856830597e-02</leafValues></_>
        <_>
          <internalNodes>
            0 -1 18 -6.2731601297855377e-02</internalNodes>
          <leafValues>
            6.2415492534637451e-01 -7.2794176638126373e-02</leafValues></_>
        <_>
          <internalNodes>
            0 -1 1 -2.4449706543236971e-03</internalNodes>
          <leafValues>
            3.0823975801467896e-01 -1.9223114848136902e-01</leafValues></_>
        <_>
          <internalNodes>
            0 -1 9 1.1561545543372631e-02</internalNodes>
          <leafValues>
            9.6898786723613739e-02 -6.6651952266693115e-01</leafValues></_>
        <_>
          <internalNodes>
            0 -1 52 2.0243900507921353e-05</internalNodes>
          <leafValues>
            -2.7244809269905090e-01 2.4336378276348114e-01</leafValues></_>
        <_>
          <internalNodes>
            0 -1 223 -1.0273160878568888e-03</internalNodes>
          <leafValues>
            2.2837634384632111e-01 -2.6603344082832336e-01</leafValues></_>
        <_>
          <internalNodes>
            0 -1 184 4.5053273439407349e-02</internalNodes>
          <leafValues>
            -1.3313430547714233e-01 6.3187372684478760e-01</leafValues></_>
        <_>
          <internalNodes>
            0 -1 200 5.6562982499599457e-03</internalNodes>
          <leafValues>
            7.9732500016689301e-02 -8.0067396163940430e-01</leafValues></_>
        <_>
          <internalNodes>
            0 -1 216 4.2804023250937462e-03</internalNodes>
          <leafValues>
            -1.2642014026641846e-01 5.1846683025360107e-01</leafValues></_>
        <_>
          <internalNodes>
            0 -1 217 -5.4522138088941574e-04</internalNodes>
          <leafValues>
            -5.1552319526672363e-01 1.3036167621612549e-01</leafValues></_>
        <_>
          <internalNodes>
            0 -1 174 -3.8269881624728441e-03</internalNodes>
          <leafValues>
            3.0069664120674133e-01 -2.6366016268730164e-01</leafValues></_>
        <_>
          <internalNodes>
            0 -1 143 5.6504993699491024e-04</internalNodes>
          <leafValues>
            -1.6004028916358948e-01 4.3959262967109680e-01</leafValues></_></weakClassifiers></_>
    <!-- stage 16 -->
    <_>
      <maxWeakCount>15</maxWeakCount>
      <stageThreshold>-1.6762629747390747e+00</stageThreshold>
      <weakClassifiers>
        <_>
          <internalNodes>
            0 -1 225 -4.4111758470535278e-03</internalNodes>
          <leafValues>
            1. -7.9211467504501343e-01</leafValues></_>
        <_>
          <internalNodes>
            0 -1 44 -8.6874328553676605e-03</internalNodes>
          <leafValues>
            6.5960532426834106e-01 -3.2946419715881348e-01</leafValues></_>
        <_>
          <internalNodes>
            0 -1 15 1.0362925240769982e-03</internalNodes>
          <leafValues>
            1.1711779236793518e-01 -4.7495260834693909e-01</leafValues></_>
        <_>
          <internalNodes>
            0 -1 53 1.7746723024174571e-03</internalNodes>
          <leafValues>
            -1.1401271075010300e-01 5.1653891801834106e-01</leafValues></_>
        <_>
          <internalNodes>
            0 -1 168 5.5506982607766986e-04</internalNodes>
          <leafValues>
            1.3583365082740784e-01 -4.6635869145393372e-01</leafValues></_>
        <_>
          <internalNodes>
            0 -1 60 2.5195190683007240e-03</internalNodes>
          <leafValues>
            8.8552325963973999e-02 -6.7548620700836182e-01</leafValues></_>
        <_>
          <internalNodes>
            0 -1 157 7.5502768158912659e-03</internalNodes>
          <leafValues>
            -9.3842379748821259e-02 4.8482576012611389e-01</leafValues></_>
        <_>
          <internalNodes>
            0 -1 159 1.8520124722272158e-03</internalNodes>
          <leafValues>
            -1.4725199341773987e-01 3.7607961893081665e-01</leafValues></_>
        <_>
          <internalNodes>
            0 -1 154 1.9217620138078928e-04</internalNodes>
          <leafValues>
            -2.3244830965995789e-01 2.5688356161117554e-01</leafValues></_>
        <_>
          <internalNodes>
            0 -1 129 6.3980789855122566e-04</internalNodes>
          <leafValues>
            2.0181748270988464e-01 -2.9123789072036743e-01</leafValues></_>
        <_>
          <internalNodes>
            0 -1 232 -1.1756911408156157e-03</internalNodes>
          <leafValues>
            -5.6220173835754395e-01 1.0990092158317566e-01</leafValues></_>
        <_>
          <internalNodes>
            0 -1 175 2.1516578271985054e-03</internalNodes>
          <leafValues>
            -1.5651974081993103e-01 4.3951398134231567e-01</leafValues></_>
        <_>
          <internalNodes>
            0 -1 55 2.3430260625900701e-05</internalNodes>
          <leafValues>
            -2.7621489763259888e-01 2.3850022256374359e-01</leafValues></_>
        <_>
          <internalNodes>
            0 -1 219 -3.5591347841545939e-04</internalNodes>
          <leafValues>
            -3.0893734097480774e-01 2.2850546240806580e-01</leafValues></_>
        <_>
          <internalNodes>
            0 -1 87 5.7578168343752623e-04</internalNodes>
          <leafValues>
            1.9867633283138275e-01 -3.4471699595451355e-01</leafValues></_></weakClassifiers></_>
    <!-- stage 17 -->
    <_>
      <maxWeakCount>14</maxWeakCount>
      <stageThreshold>-1.6221022605895996e+00</stageThreshold>
      <weakClassifiers>
        <_>
          <internalNodes>
            0 -1 183 3.1820102594792843e-03</internalNodes>
          <leafValues>
            -7.9316544532775879e-01 4.5454546809196472e-01</leafValues></_>
        <_>
          <internalNodes>
            0 -1 45 -4.2810897866729647e-05</internalNodes>
          <leafValues>
            -6.4170874655246735e-02 -5.2672332525253296e-01</leafValues></_>
        <_>
          <internalNodes>
            0 -1 95 -6.1063885688781738e-02</internalNodes>
          <leafValues>
            2.9262158274650574e-01 -1.9640101492404938e-01</leafValues></_>
        <_>
          <internalNodes>
            0 -1 142 2.0589930936694145e-03</internalNodes>
          <leafValues>
            -1.0203228145837784e-01 5.9776592254638672e-01</leafValues></_>
        <_>
          <internalNodes>
            0 -1 96 -1.1533319484442472e-03</internalNodes>
          <leafValues>
            2.5941473245620728e-01 -2.1773713827133179e-01</leafValues></_>
        <_>
          <internalNodes>
            0 -1 120 -5.0662010908126831e-03</internalNodes>
          <leafValues>
            -4.2435181140899658e-01 1.4935187995433807e-01</leafValues></_>
        <_>
          <internalNodes>
            0 -1 229 -2.7280504582449794e-04</internalNodes>
          <leafValues>
            -3.9138227701187134e-01 1.7746913433074951e-01</leafValues></_>
        <_>
          <internalNodes>
            0 -1 138 -5.5211037397384644e-04</internalNodes>
          <leafValues>
            3.7180435657501221e-01 -1.7448741197586060e-01</leafValues></_>
        <_>
          <internalNodes>
            0 -1 164 6.4198175095953047e-06</internalNodes>
          <leafValues>
            -2.4153475463390350e-01 2.9481136798858643e-01</leafValues></_>
        <_>
          <internalNodes>
            0 -1 214 -1.0133070172742009e-03</internalNodes>
          <leafValues>
            -4.8185122013092041e-01 1.2373716384172440e-01</leafValues></_>
        <_>
          <internalNodes>
            0 -1 161 -5.1506917225196958e-04</internalNodes>
          <leafValues>
            3.8479566574096680e-01 -1.7257508635520935e-01</leafValues></_>
        <_>
          <internalNodes>
            0 -1 71 2.7302245143800974e-04</internalNodes>
          <leafValues>
            1.7372003197669983e-01 -3.5637852549552917e-01</leafValues></_>
        <_>
          <internalNodes>
            0 -1 74 -1.9168448634445667e-03</internalNodes>
          <leafValues>
            4.2762225866317749e-01 -1.6260738670825958e-01</leafValues></_>
        <_>
          <internalNodes>
            0 -1 84 7.4911862611770630e-03</internalNodes>
          <leafValues>
            -8.9644633233547211e-02 6.7722338438034058e-01</leafValues></_></weakClassifiers></_>
    <!-- stage 18 -->
    <_>
      <maxWeakCount>13</maxWeakCount>
      <stageThreshold>-1.5133031606674194e+00</stageThreshold>
      <weakClassifiers>
        <_>
          <internalNodes>
            0 -1 124 9.4664767384529114e-03</internalNodes>
          <leafValues>
            -7.9854810237884521e-01 1.4285714924335480e-01</leafValues></_>
        <_>
          <internalNodes>
            0 -1 171 6.5769930370151997e-04</internalNodes>
          <leafValues>
            -4.1579285264015198e-01 1.1189271509647369e-01</leafValues></_>
        <_>
          <internalNodes>
            0 -1 26 -9.0123172849416733e-03</internalNodes>
          <leafValues>
            -8.3454483747482300e-01 5.6625746190547943e-02</leafValues></_>
        <_>
          <internalNodes>
            0 -1 210 1.7942574340850115e-03</internalNodes>
          <leafValues>
            -2.1505247056484222e-01 2.6735994219779968e-01</leafValues></_>
        <_>
          <internalNodes>
            0 -1 91 -6.1813960783183575e-03</internalNodes>
          <leafValues>
            -6.9528210163116455e-01 7.4272327125072479e-02</leafValues></_>
        <_>
          <internalNodes>
            0 -1 192 3.0824699206277728e-04</internalNodes>
          <leafValues>
            2.3918993771076202e-01 -2.2982718050479889e-01</leafValues></_>
        <_>
          <internalNodes>
            0 -1 85 -8.1139226676896214e-04</internalNodes>
          <leafValues>
            4.3761450052261353e-01 -1.3187064230442047e-01</leafValues></_>
        <_>
          <internalNodes>
            0 -1 40 -5.8325624559074640e-04</internalNodes>
          <leafValues>
            -3.9450144767761230e-01 1.4102303981781006e-01</leafValues></_>
        <_>
          <internalNodes>
            0 -1 144 2.6537936646491289e-03</internalNodes>
          <leafValues>
            -2.0595574378967285e-01 2.9056113958358765e-01</leafValues></_>
        <_>
          <internalNodes>
            0 -1 7 -3.6169617669656873e-04</internalNodes>
          <leafValues>
            -4.0588667988777161e-01 1.4839971065521240e-01</leafValues></_>
        <_>
          <internalNodes>
            0 -1 79 -4.2584683978930116e-04</internalNodes>
          <leafValues>
            3.6028736829757690e-01 -1.9450666010379791e-01</leafValues></_>
        <_>
          <internalNodes>
            0 -1 218 8.7610841728746891e-04</internalNodes>
          <leafValues>
            -1.5601511299610138e-01 4.1231229901313782e-01</leafValues></_>
        <_>
          <internalNodes>
            0 -1 62 -2.3927926085889339e-03</internalNodes>
          <leafValues>
            -4.7803694009780884e-01 1.4629273116588593e-01</leafValues></_></weakClassifiers></_>
    <!-- stage 19 -->
    <_>
      <maxWeakCount>16</maxWeakCount>
      <stageThreshold>-1.5040907859802246e+00</stageThreshold>
      <weakClassifiers>
        <_>
          <internalNodes>
            0 -1 110 -3.7483288906514645e-03</internalNodes>
          <leafValues>
            1. -7.9051029682159424e-01</leafValues></_>
        <_>
          <internalNodes>
            0 -1 126 6.8618357181549072e-02</internalNodes>
          <leafValues>
            -3.2358071208000183e-01 7.0341956615447998e-01</leafValues></_>
        <_>
          <internalNodes>
            0 -1 29 6.3717896118760109e-03</internalNodes>
          <leafValues>
            1.1528815329074860e-01 -5.4484587907791138e-01</leafValues></_>
        <_>
          <internalNodes>
            0 -1 6 -4.5777354389429092e-03</internalNodes>
          <leafValues>
            3.1507509946823120e-01 -1.8161033093929291e-01</leafValues></_>
        <_>
          <internalNodes>
            0 -1 114 1.0306946933269501e-02</internalNodes>
          <leafValues>
            1.8378083407878876e-01 -3.8164925575256348e-01</leafValues></_>
        <_>
          <internalNodes>
            0 -1 12 1.9977223128080368e-02</internalNodes>
          <leafValues>
            -1.3000620901584625e-01 5.5845963954925537e-01</leafValues></_>
        <_>
          <internalNodes>
            0 -1 139 3.3635746221989393e-03</internalNodes>
          <leafValues>
            1.3574698567390442e-01 -6.4277315139770508e-01</leafValues></_>
        <_>
          <internalNodes>
            0 -1 102 -1.0955641046166420e-03</internalNodes>
          <leafValues>
            -3.1389185786247253e-01 2.3860093951225281e-01</leafValues></_>
        <_>
          <internalNodes>
            0 -1 166 1.9426723010838032e-03</internalNodes>
          <leafValues>
            -1.4845931529998779e-01 4.9359008669853210e-01</leafValues></_>
        <_>
          <internalNodes>
            0 -1 24 -6.3148821936920285e-05</internalNodes>
          <leafValues>
            -3.1022578477859497e-01 2.1591275930404663e-01</leafValues></_>
        <_>
          <internalNodes>
            0 -1 23 -9.8048651125282049e-04</internalNodes>
          <leafValues>
            4.4709366559982300e-01 -1.4661058783531189e-01</leafValues></_>
        <_>
          <internalNodes>
            0 -1 25 4.6859652502462268e-04</internalNodes>
          <leafValues>
            1.6810458898544312e-01 -3.7244185805320740e-01</leafValues></_>
        <_>
          <internalNodes>
            0 -1 78 2.6796059682965279e-03</internalNodes>
          <leafValues>
            1.5177510678768158e-01 -3.9169043302536011e-01</leafValues></_>
        <_>
          <internalNodes>
            0 -1 155 2.4959577785921283e-05</internalNodes>
          <leafValues>
            -3.0161386728286743e-01 2.2106678783893585e-01</leafValues></_>
        <_>
          <internalNodes>
            0 -1 141 -7.3916904511861503e-05</internalNodes>
          <leafValues>
            2.5813385844230652e-01 -2.7177244424819946e-01</leafValues></_>
        <_>
          <internalNodes>
            0 -1 169 -2.1345564164221287e-04</internalNodes>
          <leafValues>
            2.7045077085494995e-01 -2.9771295189857483e-01</leafValues></_></weakClassifiers></_></stages>
  <features>
    <_>
      <rects>
        <_>
          0 1 5 6 -1.</_>
        <_>
          0 3 5 2 3.</_></rects>
      <tilted>0</tilted></_>
    <_>
      <rects>
        <_>
          0 3 9 4 -1.</_>
        <_>
          3 3 3 4 3.</_></rects>
      <tilted>0</tilted></_>
    <_>
      <rects>
        <_>
          0 3 8 20 -1.</_>
        <_>
          4 3 4 20 2.</_></rects>
      <tilted>0</tilted></_>
    <_>
      <rects>
        <_>
          0 3 12 26 -1.</_>
        <_>
          0 3 6 13 2.</_>
        <_>
          6 16 6 13 2.</_></rects>
      <tilted>0</tilted></_>
    <_>
      <rects>
        <_>
          0 3 15 3 -1.</_>
        <_>
          0 4 15 1 3.</_></rects>
      <tilted>0</tilted></_>
    <_>
      <rects>
        <_>
          0 8 20 17 -1.</_>
        <_>
          10 8 10 17 2.</_></rects>
      <tilted>0</tilted></_>
    <_>
      <rects>
        <_>
          0 9 4 16 -1.</_>
        <_>
          0 9 2 8 2.</_>
        <_>
          2 17 2 8 2.</_></rects>
      <tilted>0</tilted></_>
    <_>
      <rects>
        <_>
          0 10 1 4 -1.</_>
        <_>
          0 12 1 2 2.</_></rects>
      <tilted>0</tilted></_>
    <_>
      <rects>
        <_>
          0 10 20 2 -1.</_>
        <_>
          0 10 10 1 2.</_>
        <_>
          10 11 10 1 2.</_></rects>
      <tilted>0</tilted></_>
    <_>
      <rects>
        <_>
          0 12 18 6 -1.</_>
        <_>
          0 12 9 3 2.</_>
        <_>
          9 15 9 3 2.</_></rects>
      <tilted>0</tilted></_>
    <_>
      <rects>
        <_>
          0 17 26 3 -1.</_>
        <_>
          0 18 26 1 3.</_></rects>
      <tilted>0</tilted></_>
    <_>
      <rects>
        <_>
          0 19 26 2 -1.</_>
        <_>
          0 19 13 1 2.</_>
        <_>
          13 20 13 1 2.</_></rects>
      <tilted>0</tilted></_>
    <_>
      <rects>
        <_>
          0 22 16 8 -1.</_>
        <_>
          0 22 8 4 2.</_>
        <_>
          8 26 8 4 2.</_></rects>
      <tilted>0</tilted></_>
    <_>
      <rects>
        <_>
          0 24 9 6 -1.</_>
        <_>
          0 26 9 2 3.</_></rects>
      <tilted>0</tilted></_>
    <_>
      <rects>
        <_>
          0 25 5 3 -1.</_>
        <_>
          0 26 5 1 3.</_></rects>
      <tilted>0</tilted></_>
    <_>
      <rects>
        <_>
          0 26 1 6 -1.</_>
        <_>
          0 29 1 3 2.</_></rects>
      <tilted>0</tilted></_>
    <_>
      <rects>
        <_>
          1 2 10 1 -1.</_>
        <_>
          6 2 5 1 2.</_></rects>
      <tilted>0</tilted></_>
    <_>
      <rects>
        <_>
          1 3 20 2 -1.</_>
        <_>
          1 3 10 1 2.</_>
        <_>
          11 4 10 1 2.</_></rects>
      <tilted>0</tilted></_>
    <_>
      <rects>
        <_>
          1 4 18 16 -1.</_>
        <_>
          7 4 6 16 3.</_></rects>
      <tilted>0</tilted></_>
    <_>
      <rects>
        <_>
          1 7 6 6 -1.</_>
        <_>
          3 7 2 6 3.</_></rects>
      <tilted>0</tilted></_>
    <_>
      <rects>
        <_>
          1 10 20 1 -1.</_>
        <_>
          11 10 10 1 2.</_></rects>
      <tilted>0</tilted></_>
    <_>
      <rects>
        <_>
          1 14 28 4 -1.</_>
        <_>
          1 14 14 2 2.</_>
        <_>
          15 16 14 2 2.</_></rects>
      <tilted>0</tilted></_>
    <_>
      <rects>
        <_>
          1 15 9 11 -1.</_>
        <_>
          4 15 3 11 3.</_></rects>
      <tilted>0</tilted></_>
    <_>
      <rects>
        <_>
          1 23 2 2 -1.</_>
        <_>
          2 23 1 2 2.</_></rects>
      <tilted>0</tilted></_>
    <_>
      <rects>
        <_>
          1 24 1 3 -1.</_>
        <_>
          1 25 1 1 3.</_></rects>
      <tilted>0</tilted></_>
    <_>
      <rects>
        <_>
          1 26 4 4 -1.</_>
        <_>
          1 26 2 2 2.</_>
        <_>
          3 28 2 2 2.</_></rects>
      <tilted>0</tilted></_>
    <_>
      <rects>
        <_>
          2 2 6 6 -1.</_>
        <_>
          4 2 2 6 3.</_></rects>
      <tilted>0</tilted></_>
    <_>
      <rects>
        <_>
          2 2 3 3 -1.</_>
        <_>
          2 3 3 1 3.</_></rects>
      <tilted>0</tilted></_>
    <_>
      <rects>
        <_>
          2 2 18 1 -1.</_>
        <_>
          11 2 9 1 2.</_></rects>
      <tilted>0</tilted></_>
    <_>
      <rects>
        <_>
          2 5 1 24 -1.</_>
        <_>
          2 13 1 8 3.</_></rects>
      <tilted>0</tilted></_>
    <_>
      <rects>
        <_>
          2 6 1 20 -1.</_>
        <_>
          2 16 1 10 2.</_></rects>
      <tilted>0</tilted></_>
    <_>
      <rects>
        <_>
          2 7 2 18 -1.</_>
        <_>
          3 7 1 18 2.</_></rects>
      <tilted>0</tilted></_>
    <_>
      <rects>
        <_>
          2 8 30 24 -1.</_>
        <_>
          2 8 15 12 2.</_>
        <_>
          17 20 15 12 2.</_></rects>
      <tilted>0</tilted></_>
    <_>
      <rects>
        <_>
          2 9 2 13 -1.</_>
        <_>
          3 9 1 13 2.</_></rects>
      <tilted>0</tilted></_>
    <_>
      <rects>
        <_>
          2 9 12 2 -1.</_>
        <_>
          2 9 6 1 2.</_>
        <_>
          8 10 6 1 2.</_></rects>
      <tilted>0</tilted></_>
    <_>
      <rects>
        <_>
          2 11 30 4 -1.</_>
        <_>
          2 11 15 2 2.</_>
        <_>
          17 13 15 2 2.</_></rects>
      <tilted>0</tilted></_>
    <_>
      <rects>
        <_>
          2 12 2 2 -1.</_>
        <_>
          3 12 1 2 2.</_></rects>
      <tilted>0</tilted></_>
    <_>
      <rects>
        <_>
          2 19 2 1 -1.</_>
        <_>
          3 19 1 1 2.</_></rects>
      <tilted>0</tilted></_>
    <_>
      <rects>
        <_>
          2 23 9 3 -1.</_>
        <_>
          2 24 9 1 3.</_></rects>
      <tilted>0</tilted></_>
    <_>
      <rects>
        <_>
          2 27 2 2 -1.</_>
        <_>
          2 27 1 1 2.</_>
        <_>
          3 28 1 1 2.</_></rects>
      <tilted>0</tilted></_>
    <_>
      <rects>
        <_>
          3 0 9 1 -1.</_>
        <_>
          6 0 3 1 3.</_></rects>
      <tilted>0</tilted></_>
    <_>
      <rects>
        <_>
          3 2 8 18 -1.</_>
        <_>
          3 8 8 6 3.</_></rects>
      <tilted>0</tilted></_>
    <_>
      <rects>
        <_>
          3 4 3 7 -1.</_>
        <_>
          4 4 1 7 3.</_></rects>
      <tilted>0</tilted></_>
    <_>
      <rects>
        <_>
          3 4 29 3 -1.</_>
        <_>
          3 5 29 1 3.</_></rects>
      <tilted>0</tilted></_>
    <_>
      <rects>
        <_>
          3 12 2 6 -1.</_>
        <_>
          3 15 2 3 2.</_></rects>
      <tilted>0</tilted></_>
    <_>
      <rects>
        <_>
          3 14 3 2 -1.</_>
        <_>
          4 14 1 2 3.</_></rects>
      <tilted>0</tilted></_>
    <_>
      <rects>
        <_>
          3 26 29 2 -1.</_>
        <_>
          3 27 29 1 2.</_></rects>
      <tilted>0</tilted></_>
    <_>
      <rects>
        <_>
          3 30 24 2 -1.</_>
        <_>
          11 30 8 2 3.</_></rects>
      <tilted>0</tilted></_>
    <_>
      <rects>
        <_>
          4 0 7 3 -1.</_>
        <_>
          4 1 7 1 3.</_></rects>
      <tilted>0</tilted></_>
    <_>
      <rects>
        <_>
          4 1 26 2 -1.</_>
        <_>
          17 1 13 2 2.</_></rects>
      <tilted>0</tilted></_>
    <_>
      <rects>
        <_>
          4 4 2 3 -1.</_>
        <_>
          4 5 2 1 3.</_></rects>
      <tilted>0</tilted></_>
    <_>
      <rects>
        <_>
          4 6 3 3 -1.</_>
        <_>
          4 7 3 1 3.</_></rects>
      <tilted>0</tilted></_>
    <_>
      <rects>
        <_>
          4 7 3 1 -1.</_>
        <_>
          5 7 1 1 3.</_></rects>
      <tilted>0</tilted></_>
    <_>
      <rects>
        <_>
          4 8 2 4 -1.</_>
        <_>
          4 8 1 2 2.</_>
        <_>
          5 10 1 2 2.</_></rects>
      <tilted>0</tilted></_>
    <_>
      <rects>
        <_>
          4 9 2 2 -1.</_>
        <_>
          4 9 1 1 2.</_>
        <_>
          5 10 1 1 2.</_></rects>
      <tilted>0</tilted></_>
    <_>
      <rects>
        <_>
          4 12 3 1 -1.</_>
        <_>
          5 12 1 1 3.</_></rects>
      <tilted>0</tilted></_>
    <_>
      <rects>
        <_>
          4 15 12 13 -1.</_>
        <_>
          8 15 4 13 3.</_></rects>
      <tilted>0</tilted></_>
    <_>
      <rects>
        <_>
          4 25 28 2 -1.</_>
        <_>
          18 25 14 2 2.</_></rects>
      <tilted>0</tilted></_>
    <_>
      <rects>
        <_>
          5 0 5 32 -1.</_>
        <_>
          5 16 5 16 2.</_></rects>
      <tilted>0</tilted></_>
    <_>
      <rects>
        <_>
          5 8 24 9 -1.</_>
        <_>
          13 8 8 9 3.</_></rects>
      <tilted>0</tilted></_>
    <_>
      <rects>
        <_>
          5 10 5 3 -1.</_>
        <_>
          5 11 5 1 3.</_></rects>
      <tilted>0</tilted></_>
    <_>
      <rects>
        <_>
          5 10 20 2 -1.</_>
        <_>
          5 10 10 1 2.</_>
        <_>
          15 11 10 1 2.</_></rects>
      <tilted>0</tilted></_>
    <_>
      <rects>
        <_>
          6 3 3 6 -1.</_>
        <_>
          6 5 3 2 3.</_></rects>
      <tilted>0</tilted></_>
    <_>
      <rects>
        <_>
          6 4 15 28 -1.</_>
        <_>
          11 4 5 28 3.</_></rects>
      <tilted>0</tilted></_>
    <_>
      <rects>
        <_>
          6 10 2 2 -1.</_>
        <_>
          6 10 1 1 2.</_>
        <_>
          7 11 1 1 2.</_></rects>
      <tilted>0</tilted></_>
    <_>
      <rects>
        <_>
          6 15 21 4 -1.</_>
        <_>
          6 17 21 2 2.</_></rects>
      <tilted>0</tilted></_>
    <_>
      <rects>
        <_>
          6 17 18 2 -1.</_>
        <_>
          6 17 9 1 2.</_>
        <_>
          15 18 9 1 2.</_></rects>
      <tilted>0</tilted></_>
    <_>
      <rects>
        <_>
          6 18 18 13 -1.</_>
        <_>
          15 18 9 13 2.</_></rects>
      <tilted>0</tilted></_>
    <_>
      <rects>
        <_>
          6 19 2 2 -1.</_>
        <_>
          6 19 1 1 2.</_>
        <_>
          7 20 1 1 2.</_></rects>
      <tilted>0</tilted></_>
    <_>
      <rects>
        <_>
          6 25 6 5 -1.</_>
        <_>
          8 25 2 5 3.</_></rects>
      <tilted>0</tilted></_>
    <_>
      <rects>
        <_>
          6 30 10 2 -1.</_>
        <_>
          11 30 5 2 2.</_></rects>
      <tilted>0</tilted></_>
    <_>
      <rects>
        <_>
          6 31 6 1 -1.</_>
        <_>
          9 31 3 1 2.</_></rects>
      <tilted>0</tilted></_>
    <_>
      <rects>
        <_>
          7 3 20 6 -1.</_>
        <_>
          7 5 20 2 3.</_></rects>
      <tilted>0</tilted></_>
    <_>
      <rects>
        <_>
          7 15 3 1 -1.</_>
        <_>
          8 15 1 1 3.</_></rects>
      <tilted>0</tilted></_>
    <_>
      <rects>
        <_>
          7 22 2 4 -1.</_>
        <_>
          7 24 2 2 2.</_></rects>
      <tilted>0</tilted></_>
    <_>
      <rects>
        <_>
          7 24 12 4 -1.</_>
        <_>
          11 24 4 4 3.</_></rects>
      <tilted>0</tilted></_>
    <_>
      <rects>
        <_>
          7 24 22 3 -1.</_>
        <_>
          7 25 22 1 3.</_></rects>
      <tilted>0</tilted></_>
    <_>
      <rects>
        <_>
          7 28 15 2 -1.</_>
        <_>
          12 28 5 2 3.</_></rects>
      <tilted>0</tilted></_>
    <_>
      <rects>
        <_>
          8 5 4 18 -1.</_>
        <_>
          8 5 2 9 2.</_>
        <_>
          10 14 2 9 2.</_></rects>
      <tilted>0</tilted></_>
    <_>
      <rects>
        <_>
          8 8 1 3 -1.</_>
        <_>
          8 9 1 1 3.</_></rects>
      <tilted>0</tilted></_>
    <_>
      <rects>
        <_>
          8 21 1 2 -1.</_>
        <_>
          8 22 1 1 2.</_></rects>
      <tilted>0</tilted></_>
    <_>
      <rects>
        <_>
          8 22 2 8 -1.</_>
        <_>
          8 22 1 4 2.</_>
        <_>
          9 26 1 4 2.</_></rects>
      <tilted>0</tilted></_>
    <_>
      <rects>
        <_>
          8 27 24 1 -1.</_>
        <_>
          16 27 8 1 3.</_></rects>
      <tilted>0</tilted></_>
    <_>
      <rects>
        <_>
          8 30 9 1 -1.</_>
        <_>
          11 30 3 1 3.</_></rects>
      <tilted>0</tilted></_>
    <_>
      <rects>
        <_>
          9 1 2 6 -1.</_>
        <_>
          9 4 2 3 2.</_></rects>
      <tilted>0</tilted></_>
    <_>
      <rects>
        <_>
          9 4 3 1 -1.</_>
        <_>
          10 4 1 1 3.</_></rects>
      <tilted>0</tilted></_>
    <_>
      <rects>
        <_>
          9 6 2 2 -1.</_>
        <_>
          9 6 1 1 2.</_>
        <_>
          10 7 1 1 2.</_></rects>
      <tilted>0</tilted></_>
    <_>
      <rects>
        <_>
          9 7 6 4 -1.</_>
        <_>
          9 7 3 2 2.</_>
        <_>
          12 9 3 2 2.</_></rects>
      <tilted>0</tilted></_>
    <_>
      <rects>
        <_>
          9 13 3 3 -1.</_>
        <_>
          10 13 1 3 3.</_></rects>
      <tilted>0</tilted></_>
    <_>
      <rects>
        <_>
          9 14 3 1 -1.</_>
        <_>
          10 14 1 1 3.</_></rects>
      <tilted>0</tilted></_>
    <_>
      <rects>
        <_>
          9 18 1 3 -1.</_>
        <_>
          9 19 1 1 3.</_></rects>
      <tilted>0</tilted></_>
    <_>
      <rects>
        <_>
          10 0 2 30 -1.</_>
        <_>
          10 0 1 15 2.</_>
        <_>
          11 15 1 15 2.</_></rects>
      <tilted>0</tilted></_>
    <_>
      <rects>
        <_>
          10 4 5 3 -1.</_>
        <_>
          10 5 5 1 3.</_></rects>
      <tilted>0</tilted></_>
    <_>
      <rects>
        <_>
          10 5 6 3 -1.</_>
        <_>
          10 6 6 1 3.</_></rects>
      <tilted>0</tilted></_>
    <_>
      <rects>
        <_>
          10 8 2 2 -1.</_>
        <_>
          10 8 1 1 2.</_>
        <_>
          11 9 1 1 2.</_></rects>
      <tilted>0</tilted></_>
    <_>
      <rects>
        <_>
          10 9 18 22 -1.</_>
        <_>
          19 9 9 22 2.</_></rects>
      <tilted>0</tilted></_>
    <_>
      <rects>
        <_>
          10 12 16 4 -1.</_>
        <_>
          10 12 8 2 2.</_>
        <_>
          18 14 8 2 2.</_></rects>
      <tilted>0</tilted></_>
    <_>
      <rects>
        <_>
          10 14 2 2 -1.</_>
        <_>
          10 14 1 1 2.</_>
        <_>
          11 15 1 1 2.</_></rects>
      <tilted>0</tilted></_>
    <_>
      <rects>
        <_>
          10 15 2 2 -1.</_>
        <_>
          10 15 1 1 2.</_>
        <_>
          11 16 1 1 2.</_></rects>
      <tilted>0</tilted></_>
    <_>
      <rects>
        <_>
          10 17 14 2 -1.</_>
        <_>
          10 17 7 1 2.</_>
        <_>
          17 18 7 1 2.</_></rects>
      <tilted>0</tilted></_>
    <_>
      <rects>
        <_>
          10 18 12 2 -1.</_>
        <_>
          10 18 6 1 2.</_>
        <_>
          16 19 6 1 2.</_></rects>
      <tilted>0</tilted></_>
    <_>
      <rects>
        <_>
          10 19 2 2 -1.</_>
        <_>
          10 19 1 1 2.</_>
        <_>
          11 20 1 1 2.</_></rects>
      <tilted>0</tilted></_>
    <_>
      <rects>
        <_>
          10 20 13 12 -1.</_>
        <_>
          10 24 13 4 3.</_></rects>
      <tilted>0</tilted></_>
    <_>
      <rects>
        <_>
          11 5 16 12 -1.</_>
        <_>
          11 11 16 6 2.</_></rects>
      <tilted>0</tilted></_>
    <_>
      <rects>
        <_>
          11 8 2 2 -1.</_>
        <_>
          11 8 1 1 2.</_>
        <_>
          12 9 1 1 2.</_></rects>
      <tilted>0</tilted></_>
    <_>
      <rects>
        <_>
          11 10 1 2 -1.</_>
        <_>
          11 11 1 1 2.</_></rects>
      <tilted>0</tilted></_>
    <_>
      <rects>
        <_>
          11 15 16 4 -1.</_>
        <_>
          11 15 8 2 2.</_>
        <_>
          19 17 8 2 2.</_></rects>
      <tilted>0</tilted></_>
    <_>
      <rects>
        <_>
          12 1 8 9 -1.</_>
        <_>
          12 4 8 3 3.</_></rects>
      <tilted>0</tilted></_>
    <_>
      <rects>
        <_>
          12 3 20 18 -1.</_>
        <_>
          12 3 10 9 2.</_>
        <_>
          22 12 10 9 2.</_></rects>
      <tilted>0</tilted></_>
    <_>
      <rects>
        <_>
          12 6 6 26 -1.</_>
        <_>
          12 6 3 13 2.</_>
        <_>
          15 19 3 13 2.</_></rects>
      <tilted>0</tilted></_>
    <_>
      <rects>
        <_>
          12 10 2 2 -1.</_>
        <_>
          12 11 2 1 2.</_></rects>
      <tilted>0</tilted></_>
    <_>
      <rects>
        <_>
          12 10 10 2 -1.</_>
        <_>
          12 10 5 1 2.</_>
        <_>
          17 11 5 1 2.</_></rects>
      <tilted>0</tilted></_>
    <_>
      <rects>
        <_>
          12 15 2 2 -1.</_>
        <_>
          12 15 1 1 2.</_>
        <_>
          13 16 1 1 2.</_></rects>
      <tilted>0</tilted></_>
    <_>
      <rects>
        <_>
          12 24 2 2 -1.</_>
        <_>
          12 24 1 1 2.</_>
        <_>
          13 25 1 1 2.</_></rects>
      <tilted>0</tilted></_>
    <_>
      <rects>
        <_>
          13 0 6 32 -1.</_>
        <_>
          13 0 3 16 2.</_>
        <_>
          16 16 3 16 2.</_></rects>
      <tilted>0</tilted></_>
    <_>
      <rects>
        <_>
          13 9 1 3 -1.</_>
        <_>
          13 10 1 1 3.</_></rects>
      <tilted>0</tilted></_>
    <_>
      <rects>
        <_>
          13 10 3 9 -1.</_>
        <_>
          14 10 1 9 3.</_></rects>
      <tilted>0</tilted></_>
    <_>
      <rects>
        <_>
          13 11 2 12 -1.</_>
        <_>
          13 11 1 6 2.</_>
        <_>
          14 17 1 6 2.</_></rects>
      <tilted>0</tilted></_>
    <_>
      <rects>
        <_>
          13 19 3 3 -1.</_>
        <_>
          14 19 1 3 3.</_></rects>
      <tilted>0</tilted></_>
    <_>
      <rects>
        <_>
          13 21 4 2 -1.</_>
        <_>
          13 21 2 1 2.</_>
        <_>
          15 22 2 1 2.</_></rects>
      <tilted>0</tilted></_>
    <_>
      <rects>
        <_>
          13 26 10 4 -1.</_>
        <_>
          18 26 5 4 2.</_></rects>
      <tilted>0</tilted></_>
    <_>
      <rects>
        <_>
          13 30 16 2 -1.</_>
        <_>
          13 30 8 1 2.</_>
        <_>
          21 31 8 1 2.</_></rects>
      <tilted>0</tilted></_>
    <_>
      <rects>
        <_>
          14 0 2 3 -1.</_>
        <_>
          15 0 1 3 2.</_></rects>
      <tilted>0</tilted></_>
    <_>
      <rects>
        <_>
          14 0 1 30 -1.</_>
        <_>
          14 10 1 10 3.</_></rects>
      <tilted>0</tilted></_>
    <_>
      <rects>
        <_>
          14 4 3 4 -1.</_>
        <_>
          15 4 1 4 3.</_></rects>
      <tilted>0</tilted></_>
    <_>
      <rects>
        <_>
          14 6 2 4 -1.</_>
        <_>
          14 6 1 2 2.</_>
        <_>
          15 8 1 2 2.</_></rects>
      <tilted>0</tilted></_>
    <_>
      <rects>
        <_>
          14 9 6 18 -1.</_>
        <_>
          14 15 6 6 3.</_></rects>
      <tilted>0</tilted></_>
    <_>
      <rects>
        <_>
          14 10 8 4 -1.</_>
        <_>
          18 10 4 4 2.</_></rects>
      <tilted>0</tilted></_>
    <_>
      <rects>
        <_>
          14 12 3 1 -1.</_>
        <_>
          15 12 1 1 3.</_></rects>
      <tilted>0</tilted></_>
    <_>
      <rects>
        <_>
          14 16 5 9 -1.</_>
        <_>
          14 19 5 3 3.</_></rects>
      <tilted>0</tilted></_>
    <_>
      <rects>
        <_>
          14 20 2 2 -1.</_>
        <_>
          15 20 1 2 2.</_></rects>
      <tilted>0</tilted></_>
    <_>
      <rects>
        <_>
          14 20 4 4 -1.</_>
        <_>
          16 20 2 4 2.</_></rects>
      <tilted>0</tilted></_>
    <_>
      <rects>
        <_>
          14 21 2 8 -1.</_>
        <_>
          15 21 1 8 2.</_></rects>
      <tilted>0</tilted></_>
    <_>
      <rects>
        <_>
          15 0 6 1 -1.</_>
        <_>
          17 0 2 1 3.</_></rects>
      <tilted>0</tilted></_>
    <_>
      <rects>
        <_>
          15 0 6 12 -1.</_>
        <_>
          17 0 2 12 3.</_></rects>
      <tilted>0</tilted></_>
    <_>
      <rects>
        <_>
          15 10 2 4 -1.</_>
        <_>
          16 10 1 4 2.</_></rects>
      <tilted>0</tilted></_>
    <_>
      <rects>
        <_>
          16 5 2 2 -1.</_>
        <_>
          16 5 1 1 2.</_>
        <_>
          17 6 1 1 2.</_></rects>
      <tilted>0</tilted></_>
    <_>
      <rects>
        <_>
          16 5 8 6 -1.</_>
        <_>
          16 5 4 3 2.</_>
        <_>
          20 8 4 3 2.</_></rects>
      <tilted>0</tilted></_>
    <_>
      <rects>
        <_>
          16 19 2 2 -1.</_>
        <_>
          16 19 1 1 2.</_>
        <_>
          17 20 1 1 2.</_></rects>
      <tilted>0</tilted></_>
    <_>
      <rects>
        <_>
          16 22 4 4 -1.</_>
        <_>
          16 24 4 2 2.</_></rects>
      <tilted>0</tilted></_>
    <_>
      <rects>
        <_>
          16 25 1 3 -1.</_>
        <_>
          16 26 1 1 3.</_></rects>
      <tilted>0</tilted></_>
    <_>
      <rects>
        <_>
          16 26 6 4 -1.</_>
        <_>
          16 26 3 2 2.</_>
        <_>
          19 28 3 2 2.</_></rects>
      <tilted>0</tilted></_>
    <_>
      <rects>
        <_>
          17 1 2 4 -1.</_>
        <_>
          17 1 1 2 2.</_>
        <_>
          18 3 1 2 2.</_></rects>
      <tilted>0</tilted></_>
    <_>
      <rects>
        <_>
          17 5 2 2 -1.</_>
        <_>
          17 5 1 1 2.</_>
        <_>
          18 6 1 1 2.</_></rects>
      <tilted>0</tilted></_>
    <_>
      <rects>
        <_>
          17 6 15 2 -1.</_>
        <_>
          22 6 5 2 3.</_></rects>
      <tilted>0</tilted></_>
    <_>
      <rects>
        <_>
          17 8 2 2 -1.</_>
        <_>
          17 8 1 1 2.</_>
        <_>
          18 9 1 1 2.</_></rects>
      <tilted>0</tilted></_>
    <_>
      <rects>
        <_>
          17 8 1 10 -1.</_>
        <_>
          17 13 1 5 2.</_></rects>
      <tilted>0</tilted></_>
    <_>
      <rects>
        <_>
          17 13 11 3 -1.</_>
        <_>
          17 14 11 1 3.</_></rects>
      <tilted>0</tilted></_>
    <_>
      <rects>
        <_>
          17 15 8 3 -1.</_>
        <_>
          17 16 8 1 3.</_></rects>
      <tilted>0</tilted></_>
    <_>
      <rects>
        <_>
          17 16 2 8 -1.</_>
        <_>
          17 16 1 4 2.</_>
        <_>
          18 20 1 4 2.</_></rects>
      <tilted>0</tilted></_>
    <_>
      <rects>
        <_>
          18 2 2 12 -1.</_>
        <_>
          19 2 1 12 2.</_></rects>
      <tilted>0</tilted></_>
    <_>
      <rects>
        <_>
          18 8 6 8 -1.</_>
        <_>
          18 8 3 4 2.</_>
        <_>
          21 12 3 4 2.</_></rects>
      <tilted>0</tilted></_>
    <_>
      <rects>
        <_>
          18 12 3 2 -1.</_>
        <_>
          19 12 1 2 3.</_></rects>
      <tilted>0</tilted></_>
    <_>
      <rects>
        <_>
          18 17 9 9 -1.</_>
        <_>
          21 17 3 9 3.</_></rects>
      <tilted>0</tilted></_>
    <_>
      <rects>
        <_>
          18 19 4 2 -1.</_>
        <_>
          18 20 4 1 2.</_></rects>
      <tilted>0</tilted></_>
    <_>
      <rects>
        <_>
          18 21 3 10 -1.</_>
        <_>
          19 21 1 10 3.</_></rects>
      <tilted>0</tilted></_>
    <_>
      <rects>
        <_>
          18 25 12 1 -1.</_>
        <_>
          22 25 4 1 3.</_></rects>
      <tilted>0</tilted></_>
    <_>
      <rects>
        <_>
          18 26 6 6 -1.</_>
        <_>
          18 29 6 3 2.</_></rects>
      <tilted>0</tilted></_>
    <_>
      <rects>
        <_>
          19 1 6 7 -1.</_>
        <_>
          21 1 2 7 3.</_></rects>
      <tilted>0</tilted></_>
    <_>
      <rects>
        <_>
          19 2 2 10 -1.</_>
        <_>
          19 2 1 5 2.</_>
        <_>
          20 7 1 5 2.</_></rects>
      <tilted>0</tilted></_>
    <_>
      <rects>
        <_>
          19 3 6 9 -1.</_>
        <_>
          21 3 2 9 3.</_></rects>
      <tilted>0</tilted></_>
    <_>
      <rects>
        <_>
          19 10 2 1 -1.</_>
        <_>
          20 10 1 1 2.</_></rects>
      <tilted>0</tilted></_>
    <_>
      <rects>
        <_>
          19 14 2 2 -1.</_>
        <_>
          20 14 1 2 2.</_></rects>
      <tilted>0</tilted></_>
    <_>
      <rects>
        <_>
          19 14 1 4 -1.</_>
        <_>
          19 16 1 2 2.</_></rects>
      <tilted>0</tilted></_>
    <_>
      <rects>
        <_>
          19 27 1 2 -1.</_>
        <_>
          19 28 1 1 2.</_></rects>
      <tilted>0</tilted></_>
    <_>
      <rects>
        <_>
          19 27 2 2 -1.</_>
        <_>
          19 27 1 1 2.</_>
        <_>
          20 28 1 1 2.</_></rects>
      <tilted>0</tilted></_>
    <_>
      <rects>
        <_>
          19 28 4 2 -1.</_>
        <_>
          19 29 4 1 2.</_></rects>
      <tilted>0</tilted></_>
    <_>
      <rects>
        <_>
          19 29 9 3 -1.</_>
        <_>
          22 29 3 3 3.</_></rects>
      <tilted>0</tilted></_>
    <_>
      <rects>
        <_>
          20 1 4 2 -1.</_>
        <_>
          20 1 2 1 2.</_>
        <_>
          22 2 2 1 2.</_></rects>
      <tilted>0</tilted></_>
    <_>
      <rects>
        <_>
          20 14 2 2 -1.</_>
        <_>
          20 15 2 1 2.</_></rects>
      <tilted>0</tilted></_>
    <_>
      <rects>
        <_>
          20 16 8 3 -1.</_>
        <_>
          24 16 4 3 2.</_></rects>
      <tilted>0</tilted></_>
    <_>
      <rects>
        <_>
          20 17 2 2 -1.</_>
        <_>
          21 17 1 2 2.</_></rects>
      <tilted>0</tilted></_>
    <_>
      <rects>
        <_>
          20 17 6 14 -1.</_>
        <_>
          22 17 2 14 3.</_></rects>
      <tilted>0</tilted></_>
    <_>
      <rects>
        <_>
          20 20 3 6 -1.</_>
        <_>
          21 20 1 6 3.</_></rects>
      <tilted>0</tilted></_>
    <_>
      <rects>
        <_>
          20 20 4 10 -1.</_>
        <_>
          20 25 4 5 2.</_></rects>
      <tilted>0</tilted></_>
    <_>
      <rects>
        <_>
          20 20 10 2 -1.</_>
        <_>
          20 20 5 1 2.</_>
        <_>
          25 21 5 1 2.</_></rects>
      <tilted>0</tilted></_>
    <_>
      <rects>
        <_>
          20 26 12 1 -1.</_>
        <_>
          24 26 4 1 3.</_></rects>
      <tilted>0</tilted></_>
    <_>
      <rects>
        <_>
          20 28 3 3 -1.</_>
        <_>
          20 29 3 1 3.</_></rects>
      <tilted>0</tilted></_>
    <_>
      <rects>
        <_>
          21 2 8 6 -1.</_>
        <_>
          21 2 4 3 2.</_>
        <_>
          25 5 4 3 2.</_></rects>
      <tilted>0</tilted></_>
    <_>
      <rects>
        <_>
          21 6 10 5 -1.</_>
        <_>
          26 6 5 5 2.</_></rects>
      <tilted>0</tilted></_>
    <_>
      <rects>
        <_>
          21 10 2 8 -1.</_>
        <_>
          21 10 1 4 2.</_>
        <_>
          22 14 1 4 2.</_></rects>
      <tilted>0</tilted></_>
    <_>
      <rects>
        <_>
          21 11 2 4 -1.</_>
        <_>
          21 11 1 2 2.</_>
        <_>
          22 13 1 2 2.</_></rects>
      <tilted>0</tilted></_>
    <_>
      <rects>
        <_>
          21 15 11 15 -1.</_>
        <_>
          21 20 11 5 3.</_></rects>
      <tilted>0</tilted></_>
    <_>
      <rects>
        <_>
          21 25 2 2 -1.</_>
        <_>
          21 25 1 1 2.</_>
        <_>
          22 26 1 1 2.</_></rects>
      <tilted>0</tilted></_>
    <_>
      <rects>
        <_>
          22 3 10 27 -1.</_>
        <_>
          27 3 5 27 2.</_></rects>
      <tilted>0</tilted></_>
    <_>
      <rects>
        <_>
          22 4 2 24 -1.</_>
        <_>
          22 4 1 12 2.</_>
        <_>
          23 16 1 12 2.</_></rects>
      <tilted>0</tilted></_>
    <_>
      <rects>
        <_>
          22 5 2 2 -1.</_>
        <_>
          22 5 1 1 2.</_>
        <_>
          23 6 1 1 2.</_></rects>
      <tilted>0</tilted></_>
    <_>
      <rects>
        <_>
          22 6 4 15 -1.</_>
        <_>
          24 6 2 15 2.</_></rects>
      <tilted>0</tilted></_>
    <_>
      <rects>
        <_>
          22 8 8 15 -1.</_>
        <_>
          26 8 4 15 2.</_></rects>
      <tilted>0</tilted></_>
    <_>
      <rects>
        <_>
          22 9 6 2 -1.</_>
        <_>
          22 9 3 1 2.</_>
        <_>
          25 10 3 1 2.</_></rects>
      <tilted>0</tilted></_>
    <_>
      <rects>
        <_>
          22 18 2 4 -1.</_>
        <_>
          22 18 1 2 2.</_>
        <_>
          23 20 1 2 2.</_></rects>
      <tilted>0</tilted></_>
    <_>
      <rects>
        <_>
          22 21 10 3 -1.</_>
        <_>
          22 22 10 1 3.</_></rects>
      <tilted>0</tilted></_>
    <_>
      <rects>
        <_>
          22 23 8 6 -1.</_>
        <_>
          22 25 8 2 3.</_></rects>
      <tilted>0</tilted></_>
    <_>
      <rects>
        <_>
          22 24 2 2 -1.</_>
        <_>
          22 24 1 1 2.</_>
        <_>
          23 25 1 1 2.</_></rects>
      <tilted>0</tilted></_>
    <_>
      <rects>
        <_>
          23 3 2 14 -1.</_>
        <_>
          24 3 1 14 2.</_></rects>
      <tilted>0</tilted></_>
    <_>
      <rects>
        <_>
          23 4 4 24 -1.</_>
        <_>
          23 4 2 12 2.</_>
        <_>
          25 16 2 12 2.</_></rects>
      <tilted>0</tilted></_>
    <_>
      <rects>
        <_>
          23 5 8 6 -1.</_>
        <_>
          23 8 8 3 2.</_></rects>
      <tilted>0</tilted></_>
    <_>
      <rects>
        <_>
          23 6 8 11 -1.</_>
        <_>
          27 6 4 11 2.</_></rects>
      <tilted>0</tilted></_>
    <_>
      <rects>
        <_>
          23 10 1 12 -1.</_>
        <_>
          23 14 1 4 3.</_></rects>
      <tilted>0</tilted></_>
    <_>
      <rects>
        <_>
          23 17 2 8 -1.</_>
        <_>
          23 17 1 4 2.</_>
        <_>
          24 21 1 4 2.</_></rects>
      <tilted>0</tilted></_>
    <_>
      <rects>
        <_>
          23 18 3 12 -1.</_>
        <_>
          24 18 1 12 3.</_></rects>
      <tilted>0</tilted></_>
    <_>
      <rects>
        <_>
          23 21 3 1 -1.</_>
        <_>
          24 21 1 1 3.</_></rects>
      <tilted>0</tilted></_>
    <_>
      <rects>
        <_>
          23 28 6 2 -1.</_>
        <_>
          23 28 3 1 2.</_>
        <_>
          26 29 3 1 2.</_></rects>
      <tilted>0</tilted></_>
    <_>
      <rects>
        <_>
          25 21 2 1 -1.</_>
        <_>
          26 21 1 1 2.</_></rects>
      <tilted>0</tilted></_>
    <_>
      <rects>
        <_>
          25 23 7 3 -1.</_>
        <_>
          25 24 7 1 3.</_></rects>
      <tilted>0</tilted></_>
    <_>
      <rects>
        <_>
          25 24 2 4 -1.</_>
        <_>
          25 24 1 2 2.</_>
        <_>
          26 26 1 2 2.</_></rects>
      <tilted>0</tilted></_>
    <_>
      <rects>
        <_>
          25 27 2 2 -1.</_>
        <_>
          26 27 1 2 2.</_></rects>
      <tilted>0</tilted></_>
    <_>
      <rects>
        <_>
          25 27 6 2 -1.</_>
        <_>
          25 27 3 1 2.</_>
        <_>
          28 28 3 1 2.</_></rects>
      <tilted>0</tilted></_>
    <_>
      <rects>
        <_>
          26 11 2 1 -1.</_>
        <_>
          27 11 1 1 2.</_></rects>
      <tilted>0</tilted></_>
    <_>
      <rects>
        <_>
          26 16 6 2 -1.</_>
        <_>
          26 17 6 1 2.</_></rects>
      <tilted>0</tilted></_>
    <_>
      <rects>
        <_>
          26 22 4 9 -1.</_>
        <_>
          26 25 4 3 3.</_></rects>
      <tilted>0</tilted></_>
    <_>
      <rects>
        <_>
          26 30 4 1 -1.</_>
        <_>
          28 30 2 1 2.</_></rects>
      <tilted>0</tilted></_>
    <_>
      <rects>
        <_>
          27 0 4 4 -1.</_>
        <_>
          27 0 2 2 2.</_>
        <_>
          29 2 2 2 2.</_></rects>
      <tilted>0</tilted></_>
    <_>
      <rects>
        <_>
          27 9 2 4 -1.</_>
        <_>
          27 9 1 2 2.</_>
        <_>
          28 11 1 2 2.</_></rects>
      <tilted>0</tilted></_>
    <_>
      <rects>
        <_>
          27 10 3 3 -1.</_>
        <_>
          28 10 1 3 3.</_></rects>
      <tilted>0</tilted></_>
    <_>
      <rects>
        <_>
          27 22 2 1 -1.</_>
        <_>
          28 22 1 1 2.</_></rects>
      <tilted>0</tilted></_>
    <_>
      <rects>
        <_>
          27 23 1 9 -1.</_>
        <_>
          27 26 1 3 3.</_></rects>
      <tilted>0</tilted></_>
    <_>
      <rects>
        <_>
          27 27 2 2 -1.</_>
        <_>
          27 28 2 1 2.</_></rects>
      <tilted>0</tilted></_>
    <_>
      <rects>
        <_>
          28 1 4 1 -1.</_>
        <_>
          30 1 2 1 2.</_></rects>
      <tilted>0</tilted></_>
    <_>
      <rects>
        <_>
          28 12 1 12 -1.</_>
        <_>
          28 16 1 4 3.</_></rects>
      <tilted>0</tilted></_>
    <_>
      <rects>
        <_>
          28 14 2 7 -1.</_>
        <_>
          29 14 1 7 2.</_></rects>
      <tilted>0</tilted></_>
    <_>
      <rects>
        <_>
          28 16 2 6 -1.</_>
        <_>
          28 16 1 3 2.</_>
        <_>
          29 19 1 3 2.</_></rects>
      <tilted>0</tilted></_>
    <_>
      <rects>
        <_>
          28 20 4 12 -1.</_>
        <_>
          28 24 4 4 3.</_></rects>
      <tilted>0</tilted></_>
    <_>
      <rects>
        <_>
          28 21 4 11 -1.</_>
        <_>
          30 21 2 11 2.</_></rects>
      <tilted>0</tilted></_>
    <_>
      <rects>
        <_>
          29 0 2 2 -1.</_>
        <_>
          29 1 2 1 2.</_></rects>
      <tilted>0</tilted></_>
    <_>
      <rects>
        <_>
          29 6 1 3 -1.</_>
        <_>
          29 7 1 1 3.</_></rects>
      <tilted>0</tilted></_>
    <_>
      <rects>
        <_>
          29 9 3 1 -1.</_>
        <_>
          30 9 1 1 3.</_></rects>
      <tilted>0</tilted></_>
    <_>
      <rects>
        <_>
          29 24 3 3 -1.</_>
        <_>
          29 25 3 1 3.</_></rects>
      <tilted>0</tilted></_>
    <_>
      <rects>
        <_>
          29 30 3 2 -1.</_>
        <_>
          30 30 1 2 3.</_></rects>
      <tilted>0</tilted></_>
    <_>
      <rects>
        <_>
          30 1 1 3 -1.</_>
        <_>
          30 2 1 1 3.</_></rects>
      <tilted>0</tilted></_>
    <_>
      <rects>
        <_>
          30 10 2 5 -1.</_>
        <_>
          31 10 1 5 2.</_></rects>
      <tilted>0</tilted></_>
    <_>
      <rects>
        <_>
          31 16 1 9 -1.</_>
        <_>
          31 19 1 3 3.</_></rects>
      <tilted>0</tilted></_>
    <_>
      <rects>
        <_>
          31 28 1 4 -1.</_>
        <_>
          31 30 1 2 2.</_></rects>
      <tilted>0</tilted></_></features></cascade>
</opencv_storage>
